digraph Tree {
node [shape=box] ;
0 [label="X[0] <= 0.5\nentropy = 0.941\nsamples = 268\nvalue = [96, 172]"] ;
1 [label="X[2] <= 0.5\nentropy = 0.245\nsamples = 74\nvalue = [3, 71]"] ;
0 -> 1 [labeldistance=2.5, labelangle=45, headlabel="True"] ;
2 [label="X[3] <= 0.5\nentropy = 0.391\nsamples = 39\nvalue = [3, 36]"] ;
1 -> 2 ;
3 [label="X[1] <= 0.5\nentropy = 0.242\nsamples = 25\nvalue = [1, 24]"] ;
2 -> 3 ;
4 [label="entropy = 0.0\nsamples = 1\nvalue = [0, 1]"] ;
3 -> 4 ;
5 [label="X[1] <= 1.5\nentropy = 0.25\nsamples = 24\nvalue = [1, 23]"] ;
3 -> 5 ;
6 [label="entropy = 0.258\nsamples = 23\nvalue = [1, 22]"] ;
5 -> 6 ;
7 [label="entropy = 0.0\nsamples = 1\nvalue = [0, 1]"] ;
5 -> 7 ;
8 [label="X[1] <= 1.5\nentropy = 0.592\nsamples = 14\nvalue = [2, 12]"] ;
2 -> 8 ;
9 [label="X[1] <= 0.5\nentropy = 0.918\nsamples = 3\nvalue = [1, 2]"] ;
8 -> 9 ;
10 [label="entropy = 0.0\nsamples = 1\nvalue = [0, 1]"] ;
9 -> 10 ;
11 [label="entropy = 1.0\nsamples = 2\nvalue = [1, 1]"] ;
9 -> 11 ;
12 [label="entropy = 0.439\nsamples = 11\nvalue = [1, 10]"] ;
8 -> 12 ;
13 [label="entropy = 0.0\nsamples = 35\nvalue = [0, 35]"] ;
1 -> 13 ;
14 [label="X[2] <= 0.5\nentropy = 0.999\nsamples = 194\nvalue = [93, 101]"] ;
0 -> 14 [labeldistance=2.5, labelangle=-45, headlabel="False"] ;
15 [label="X[0] <= 1.5\nentropy = 0.865\nsamples = 94\nvalue = [67, 27]"] ;
14 -> 15 ;
16 [label="X[3] <= 0.5\nentropy = 0.988\nsamples = 39\nvalue = [17, 22]"] ;
15 -> 16 ;
17 [label="X[1] <= 1.0\nentropy = 0.439\nsamples = 22\nvalue = [2, 20]"] ;
16 -> 17 ;
18 [label="entropy = 0.0\nsamples = 2\nvalue = [0, 2]"] ;
17 -> 18 ;
19 [label="entropy = 0.469\nsamples = 20\nvalue = [2, 18]"] ;
17 -> 19 ;
20 [label="X[1] <= 1.0\nentropy = 0.523\nsamples = 17\nvalue = [15, 2]"] ;
16 -> 20 ;
21 [label="entropy = 1.0\nsamples = 2\nvalue = [1, 1]"] ;
20 -> 21 ;
22 [label="entropy = 0.353\nsamples = 15\nvalue = [14, 1]"] ;
20 -> 22 ;
23 [label="X[1] <= 1.5\nentropy = 0.439\nsamples = 55\nvalue = [50, 5]"] ;
15 -> 23 ;
24 [label="X[3] <= 0.5\nentropy = 0.33\nsamples = 33\nvalue = [31, 2]"] ;
23 -> 24 ;
25 [label="entropy = 0.297\nsamples = 19\nvalue = [18, 1]"] ;
24 -> 25 ;
26 [label="entropy = 0.371\nsamples = 14\nvalue = [13, 1]"] ;
24 -> 26 ;
27 [label="X[3] <= 0.5\nentropy = 0.575\nsamples = 22\nvalue = [19, 3]"] ;
23 -> 27 ;
28 [label="entropy = 0.503\nsamples = 18\nvalue = [16, 2]"] ;
27 -> 28 ;
29 [label="entropy = 0.811\nsamples = 4\nvalue = [3, 1]"] ;
27 -> 29 ;
30 [label="X[3] <= 0.5\nentropy = 0.827\nsamples = 100\nvalue = [26, 74]"] ;
14 -> 30 ;
31 [label="X[1] <= 0.5\nentropy = 0.544\nsamples = 64\nvalue = [8, 56]"] ;
30 -> 31 ;
32 [label="X[0] <= 1.5\nentropy = 0.292\nsamples = 39\nvalue = [2, 37]"] ;
31 -> 32 ;
33 [label="entropy = 0.503\nsamples = 18\nvalue = [2, 16]"] ;
32 -> 33 ;
34 [label="entropy = 0.0\nsamples = 21\nvalue = [0, 21]"] ;
32 -> 34 ;
35 [label="X[0] <= 1.5\nentropy = 0.795\nsamples = 25\nvalue = [6, 19]"] ;
31 -> 35 ;
36 [label="entropy = 0.702\nsamples = 21\nvalue = [4, 17]"] ;
35 -> 36 ;
37 [label="X[1] <= 1.5\nentropy = 1.0\nsamples = 4\nvalue = [2, 2]"] ;
35 -> 37 ;
38 [label="entropy = 1.0\nsamples = 2\nvalue = [1, 1]"] ;
37 -> 38 ;
39 [label="entropy = 1.0\nsamples = 2\nvalue = [1, 1]"] ;
37 -> 39 ;
40 [label="X[1] <= 1.5\nentropy = 1.0\nsamples = 36\nvalue = [18, 18]"] ;
30 -> 40 ;
41 [label="X[0] <= 1.5\nentropy = 0.722\nsamples = 20\nvalue = [16, 4]"] ;
40 -> 41 ;
42 [label="entropy = 0.544\nsamples = 16\nvalue = [14, 2]"] ;
41 -> 42 ;
43 [label="X[1] <= 0.5\nentropy = 1.0\nsamples = 4\nvalue = [2, 2]"] ;
41 -> 43 ;
44 [label="entropy = 0.918\nsamples = 3\nvalue = [1, 2]"] ;
43 -> 44 ;
45 [label="entropy = 0.0\nsamples = 1\nvalue = [1, 0]"] ;
43 -> 45 ;
46 [label="X[0] <= 1.5\nentropy = 0.544\nsamples = 16\nvalue = [2, 14]"] ;
40 -> 46 ;
47 [label="entropy = 1.0\nsamples = 2\nvalue = [1, 1]"] ;
46 -> 47 ;
48 [label="entropy = 0.371\nsamples = 14\nvalue = [1, 13]"] ;
46 -> 48 ;
}
